3.712615743279457092e-02
9.779831767082214355e-02
-1.875818222761154175e-01
-1.235932782292366028e-01
9.337305277585983276e-02
-8.562397956848144531e-02
9.998247027397155762e-02
6.876263022422790527e-01
2.957535088062286377e-01
1.346989125013351440e-01
-9.703395515680313110e-02
3.930001985281705856e-03
1.116884499788284302e-01
-1.218150462955236435e-02
-1.276945918798446655e-01
1.504419445991516113e-01
-2.986851930618286133e-01
-1.599747091531753540e-01
-1.876051723957061768e-01
-2.391115874052047729e-01
-2.686172723770141602e-01
2.786704525351524353e-02
-1.447266340255737305e-01
-8.297397941350936890e-02
3.408453613519668579e-02
-5.014358833432197571e-02
-3.660786151885986328e-01
-1.295183420181274414e+00
3.024269640445709229e-01
1.445828825235366821e-01
3.078061528503894806e-02
-1.179172620177268982e-01
1.004015747457742691e-02
1.124321296811103821e-01
-1.447667479515075684e-01
6.060504820197820663e-03
-7.492408039979636669e-04
-5.789585709571838379e-01
-2.299575954675674438e-01
-6.956703029572963715e-03
-1.232367277145385742e+00
7.388143241405487061e-02
-1.822665095329284668e+00
-4.240574780851602554e-03
4.561511576175689697e-01
-1.700790226459503174e-01
4.821180552244186401e-02
-6.304182857275009155e-02
4.717736318707466125e-02
5.576698109507560730e-03
-2.841498143970966339e-02
3.293100744485855103e-02
9.227740764617919922e-02
8.218868821859359741e-02
2.262904745293781161e-04
7.301119714975357056e-02
