-1.229505911469459534e-01
-1.339743100106716156e-02
2.101252377033233643e-01
1.306482255458831787e-01
1.777076125144958496e-01
-8.608449250459671021e-02
-3.215009570121765137e-01
3.538050949573516846e-01
-1.570492386817932129e-01
1.341882497072219849e-01
-2.124504148960113525e-01
1.187057793140411377e-01
4.353103041648864746e-02
-7.005728036165237427e-02
-5.254114419221878052e-02
1.396094411611557007e-01
-4.956806451082229614e-02
-2.483427077531814575e-01
3.883298933506011963e-01
-1.268264949321746826e-01
2.809678912162780762e-01
-1.939210146665573120e-01
-4.035464487969875336e-03
2.471728436648845673e-02
-2.492240257561206818e-02
-2.128438055515289307e-01
3.678042814135551453e-02
2.582243084907531738e-02
-1.105766892433166504e-01
1.207238584756851196e-01
-1.744951754808425903e-01
-5.105747655034065247e-02
-2.707436382770538330e-01
1.616025418043136597e-01
4.202797636389732361e-02
1.060104593634605408e-01
-4.244536533951759338e-02
-5.166115611791610718e-02
1.290780603885650635e-01
-1.610166626051068306e-03
-1.608652770519256592e-01
2.811304060742259026e-03
-7.346977293491363525e-02
-1.486310660839080811e-01
2.942222170531749725e-02
-8.662193268537521362e-02
3.439404815435409546e-02
-2.977927215397357941e-02
3.693894669413566589e-02
4.793848469853401184e-02
-2.731694877147674561e-01
-1.793089359998703003e-01
-6.301487237215042114e-02
-7.718743383884429932e-02
-4.219762235879898071e-02
-1.383566409349441528e-01
