-2.267499923706054688e+00
3.575009584426879883e+00
-3.460732996463775635e-01
-1.715206652879714966e-01
-1.034212037920951843e-01
1.080371439456939697e-02
-1.338047832250595093e-01
7.643014430999755859e+00
3.336629597470164299e-03
-5.376644060015678406e-02
3.059536218643188477e+00
-1.208845615386962891e+00
6.854735314846038818e-02
-6.124492883682250977e-01
-5.753273516893386841e-02
9.958506822586059570e-01
1.006958365440368652e+00
-1.243252027779817581e-02
1.039448261260986328e+00
9.343712329864501953e-01
1.041628241539001465e+00
-1.734383106231689453e+00
1.033559679985046387e+00
-2.021005004644393921e-01
-5.303168296813964844e-01
-5.151266455650329590e-01
6.498545873910188675e-03
4.582162201404571533e-02
2.954457420855760574e-03
2.473656646907329559e-02
-3.014126121997833252e-01
-4.430289193987846375e-02
3.755567222833633423e-02
-1.313700899481773376e-02
-4.594420269131660461e-02
-9.434280395507812500e-01
3.315485000610351562e+00
-8.479210734367370605e-01
-1.517783999443054199e-01
-4.852600693702697754e-01
-5.853759124875068665e-02
1.024420380592346191e+00
-1.071512699127197266e-02
1.039472937583923340e+00
8.208476938307285309e-03
3.013092994689941406e+00
-3.556848168373107910e-01
1.901556253433227539e+00
-2.437506802380084991e-03
-4.661688506603240967e-01
9.519672989845275879e-01
-2.114155888557434082e-01
2.124620676040649414e-01
-6.540167331695556641e-02
-6.728007793426513672e-01
-4.256470799446105957e-01
