-4.193016141653060913e-02
-2.680202960968017578e+00
9.883847236633300781e-01
9.428043365478515625e-01
9.976623654365539551e-01
7.575729861855506897e-03
-7.797882426530122757e-03
1.003273367881774902e+00
-1.356425695121288300e-02
-6.299133598804473877e-02
-1.706939376890659332e-02
3.753804206848144531e+00
7.858837246894836426e-01
-1.065580546855926514e-01
-1.613175123929977417e-01
9.700480699539184570e-01
-3.943611383438110352e-01
-1.670679077506065369e-02
9.783177971839904785e-01
-1.931354776024818420e-02
1.026095509529113770e+00
-2.848194725811481476e-02
-2.024342864751815796e-01
-9.426447749137878418e-01
-1.065217733383178711e+00
4.504738841205835342e-03
-3.276294469833374023e+00
-3.408647477626800537e-01
-3.552515208721160889e-01
1.008128166198730469e+00
-2.608385495841503143e-02
-1.175264865159988403e-01
-4.371393844485282898e-02
-8.097234368324279785e-01
-1.165860425680875778e-02
2.422803163528442383e+00
-1.036862850189208984e+00
-2.831539697945117950e-02
3.609049081802368164e+00
3.667734861373901367e+00
-1.653671823441982269e-02
-3.246933966875076294e-02
-1.215342283248901367e-01
-1.121101249009370804e-02
7.915617823600769043e-01
-2.565177977085113525e-01
-3.776710033416748047e-01
-6.144261360168457031e-01
-1.506071984767913818e-01
-1.480043888092041016e+00
-1.539868582040071487e-02
-5.118517577648162842e-02
-4.587251693010330200e-02
-9.108458459377288818e-02
-1.098795056343078613e+00
-2.378319948911666870e-01
